<?xml version="1.0" encoding="UTF-8"?>
<BIF VERSION="0.3"  xmlns="http://www.cs.ubc.ca/labs/lci/fopi/ve/XMLBIFv0_3"
	xmlns:xsi="http://www.w3.org/2001/XMLSchema-instance"
	xsi:schemaLocation="http://www.cs.ubc.ca/labs/lci/fopi/ve/XMLBIFv0_3 http://www.cs.ubc.ca/labs/lci/fopi/ve/XMLBIFv0_3/XMLBIFv0_3.xsd">
<NETWORK>
<NAME>Untitled</NAME>
<PROPERTY>detailed = </PROPERTY>
<PROPERTY>short = </PROPERTY>

<VARIABLE TYPE="nature">
	<NAME>Weather</NAME>
	<OUTCOME>Good</OUTCOME>
	<OUTCOME>Bad</OUTCOME>
	<PROPERTY>position = (7370.931640625, 5059.00341796875)</PROPERTY>
</VARIABLE>

<VARIABLE TYPE="nature">
	<NAME>Tide</NAME>
	<OUTCOME>Low</OUTCOME>
	<OUTCOME>High</OUTCOME>
	<PROPERTY>position = (7523.7626953125, 5048.08740234375)</PROPERTY>
</VARIABLE>

<VARIABLE TYPE="nature">
	<NAME>Canal Busy</NAME>
	<OUTCOME>T</OUTCOME>
	<OUTCOME>F</OUTCOME>
	<PROPERTY>position = (7669.3330078125, 5059.060546875)</PROPERTY>
</VARIABLE>

<VARIABLE TYPE="nature">
	<NAME>Giant Ships</NAME>
	<OUTCOME>T</OUTCOME>
	<OUTCOME>F</OUTCOME>
	<PROPERTY>position = (7210.396484375, 5111.72265625)</PROPERTY>
</VARIABLE>

<VARIABLE TYPE="nature">
	<NAME>Risk Giant Ship Get Stuck</NAME>
	<OUTCOME>less3%</OUTCOME>
	<OUTCOME>more3%</OUTCOME>
	<PROPERTY>position = (7496.61474609375, 5244.28515625)</PROPERTY>
</VARIABLE>

<VARIABLE TYPE="nature">
	<NAME>Reduce Speed</NAME>
	<OUTCOME>T</OUTCOME>
	<OUTCOME>F</OUTCOME>
	<PROPERTY>position = (7591.3466796875, 5405.912109375)</PROPERTY>
</VARIABLE>

<VARIABLE TYPE="nature">
	<NAME>Weather Sensor</NAME>
	<OUTCOME>Good</OUTCOME>
	<OUTCOME>Bad</OUTCOME>
	<PROPERTY>position = (7436.150390625, 5145.623046875)</PROPERTY>
</VARIABLE>

<VARIABLE TYPE="nature">
	<NAME>Alert</NAME>
	<OUTCOME>T</OUTCOME>
	<OUTCOME>F</OUTCOME>
	<PROPERTY>position = (7501.91455078125, 5320.45947265625)</PROPERTY>
</VARIABLE>

<VARIABLE TYPE="nature">
	<NAME>Construction Work</NAME>
	<OUTCOME>T</OUTCOME>
	<OUTCOME>F</OUTCOME>
	<PROPERTY>position = (7178.42919921875, 5202.81982421875)</PROPERTY>
</VARIABLE>

<VARIABLE TYPE="nature">
	<NAME>Police Warning</NAME>
	<OUTCOME>T</OUTCOME>
	<OUTCOME>F</OUTCOME>
	<PROPERTY>position = (7816.5712890625, 5266.94921875)</PROPERTY>
</VARIABLE>

<DEFINITION>
	<FOR>Weather</FOR>
	<TABLE>0.65 0.35</TABLE>
</DEFINITION>

<DEFINITION>
	<FOR>Tide</FOR>
	<TABLE>0.25 0.75</TABLE>
</DEFINITION>

<DEFINITION>
	<FOR>Canal Busy</FOR>
	<TABLE>0.2 0.8</TABLE>
</DEFINITION>

<DEFINITION>
	<FOR>Giant Ships</FOR>
	<TABLE>0.9 0.1</TABLE>
</DEFINITION>

<DEFINITION>
	<FOR>Risk Giant Ship Get Stuck</FOR>
	<GIVEN>Tide</GIVEN>
	<GIVEN>Canal Busy</GIVEN>
	<GIVEN>Giant Ships</GIVEN>
	<GIVEN>Weather Sensor</GIVEN>
	<GIVEN>Construction Work</GIVEN>
	<TABLE>0.0 1.0 0.0 1.0 0.0 1.0 0.0 1.0 1.0 0.0 1.0 0.0 1.0 0.0 1.0 0.0 0.0 1.0 1.0 0.0 0.0 1.0 0.0 1.0 1.0 0.0 1.0 0.0 1.0 0.0 1.0 0.0 0.0 1.0 1.0 0.0 0.0 1.0 0.0 1.0 1.0 0.0 1.0 0.0 1.0 0.0 1.0 0.0 1.0 0.0 1.0 0.0 0.0 1.0 1.0 0.0 1.0 0.0 1.0 0.0 1.0 0.0 1.0 0.0</TABLE>
</DEFINITION>

<DEFINITION>
	<FOR>Reduce Speed</FOR>
	<GIVEN>Alert</GIVEN>
	<GIVEN>Police Warning</GIVEN>
	<TABLE>0.999 0.001 0.99 0.01 0.99 0.01 0.01 0.99</TABLE>
</DEFINITION>

<DEFINITION>
	<FOR>Weather Sensor</FOR>
	<GIVEN>Weather</GIVEN>
	<TABLE>0.99 0.01 0.01 0.99</TABLE>
</DEFINITION>

<DEFINITION>
	<FOR>Alert</FOR>
	<GIVEN>Risk Giant Ship Get Stuck</GIVEN>
	<TABLE>0.0 1.0 1.0 0.0</TABLE>
</DEFINITION>

<DEFINITION>
	<FOR>Construction Work</FOR>
	<TABLE>0.07 0.93</TABLE>
</DEFINITION>

<DEFINITION>
	<FOR>Police Warning</FOR>
	<TABLE>0.02 0.98</TABLE>
</DEFINITION>
</NETWORK>
</BIF>
